/*!
* The following copyright notice may not be removed under any circumstances.
*
* Copyright:
* 1993 Erik Spiekermann
*/
Cufon.registerFont({ "w": 666, "face": { "font-family": "MetaPlusBold-Roman", "font-weight": 500, "font-stretch": "normal", "units-per-em": "1000", "panose-1": "0 0 0 0 0 0 0 0 0 0", "ascent": "800", "descent": "-200", "x-height": "11", "bbox": "-24 -786 1206 224", "underline-thickness": "20", "underline-position": "-132", "unicode-range": "U+0020-U+007E" }, "glyphs": { " ": { "w": 225 }, "!": { "d": "93,-221r-30,-466r160,-23r-28,489r-102,0xm143,13v-44,0,-81,-39,-81,-83v0,-46,37,-83,83,-83v45,0,82,38,82,83v0,46,-38,83,-84,83", "w": 296 }, "\"": { "d": "440,-708r0,282r-126,0r0,-282r126,0xm208,-708r0,282r-126,0r0,-282r126,0", "w": 520 }, "#": { "d": "30,-201r0,-90r96,0r17,-126r-84,0r0,-90r96,0r28,-201r97,0r-28,201r99,0r28,-201r97,0r-28,201r84,0r0,90r-96,0r-17,126r84,0r0,90r-96,0r-28,201r-97,0r28,-201r-99,0r-28,201r-97,0r28,-201r-84,0xm240,-417r-17,126r99,0r17,-126r-99,0", "w": 564 }, "$": { "d": "42,-501v0,-121,93,-202,209,-213r0,-72r86,0r0,73v72,7,134,30,186,67r-66,100v-55,-32,-91,-48,-162,-53v-71,-5,-129,72,-81,123v25,27,100,37,145,50v117,33,176,101,176,207v-1,136,-109,221,-243,232r0,81r-86,0r0,-81v-69,-6,-134,-26,-195,-61r52,-109v66,33,106,56,191,56v81,0,122,-32,122,-95v0,-105,-186,-97,-254,-146v-42,-31,-80,-83,-80,-159", "w": 572 }, "%": { "d": "647,-695r-364,695r-95,0r364,-695r95,0xm196,-705v103,0,172,66,172,172v0,94,-47,143,-100,163v-122,45,-241,-30,-241,-161v0,-102,67,-174,169,-174xm635,-336v103,0,172,66,172,172v0,94,-46,142,-99,162v-122,45,-242,-29,-242,-160v0,-102,67,-174,169,-174xm195,-631v-50,0,-60,38,-59,97v1,64,6,100,61,100v52,0,59,-39,60,-101v0,-66,-13,-96,-62,-96xm634,-262v-50,0,-60,38,-59,97v1,64,6,100,61,100v52,0,59,-39,60,-101v0,-66,-13,-96,-62,-96", "w": 838 }, "&": { "d": "481,-235v8,-34,9,-58,9,-105r112,0v1,77,-10,142,-32,192r149,148r-186,0r-42,-42v-45,35,-98,56,-191,56v-145,0,-251,-57,-251,-189v0,-77,42,-134,125,-173v-56,-45,-79,-69,-81,-150v-2,-104,90,-168,200,-168v126,0,238,83,194,210v-21,59,-66,81,-122,111xm294,-573v-52,0,-80,58,-54,103v5,10,30,38,50,58v44,-23,66,-54,66,-94v1,-37,-25,-67,-62,-67xm192,-183v0,66,37,99,112,99v48,0,83,-11,105,-34r-163,-157v-36,22,-54,53,-54,92", "w": 715 }, "'": { "d": "211,-708r0,282r-126,0r0,-282r126,0", "w": 296 }, "(": { "d": "317,169v-160,-59,-247,-203,-254,-413v-6,-183,9,-335,104,-431v45,-45,93,-82,148,-106r35,79v-47,34,-98,74,-124,146v-43,116,-31,248,-20,395v7,98,44,166,85,210v13,14,34,27,61,42", "w": 350 }, ")": { "d": "29,-782v243,68,301,409,230,707v-24,100,-133,206,-231,243r-34,-79v43,-30,95,-71,124,-145v29,-74,30,-142,31,-235v2,-196,-24,-348,-155,-413", "w": 344 }, "*": { "d": "422,-613r30,95r-131,42r83,114r-83,61r-84,-115r-81,110r-81,-61r84,-109r-133,-46r32,-95r131,47r0,-138r102,0r0,138", "w": 482 }, "+": { "d": "247,-366r0,-211r126,0r0,211r211,0r0,126r-211,0r0,211r-126,0r0,-211r-211,0r0,-126r211,0", "w": 632 }, ",": { "d": "127,-156v111,0,125,163,61,235v-28,32,-60,55,-102,66r-53,-56v51,-8,105,-58,39,-93v-66,-35,-25,-152,55,-152", "w": 267 }, "-": { "d": "290,-332r0,116r-240,0r0,-116r240,0", "w": 338 }, ".": { "d": "133,-160v48,0,89,39,89,87v0,48,-41,89,-88,89v-47,0,-88,-41,-88,-89v0,-47,40,-87,87,-87", "w": 267 }, "\/": { "d": "420,-764r-268,918r-88,0r268,-918r88,0", "w": 480 }, "0": { "d": "277,-522v149,0,237,111,237,266v0,151,-93,268,-238,268v-149,0,-237,-111,-237,-266v0,-151,93,-268,238,-268xm367,-253v0,-105,-12,-171,-90,-171v-78,0,-91,77,-91,167v0,105,12,171,90,171v78,0,91,-77,91,-167", "w": 548 }, "1": { "d": "167,-368v-40,24,-73,42,-120,58r-34,-72r193,-140r90,0r0,413r80,0r0,109r-317,0r0,-109r108,0r0,-259", "w": 416 }, "2": { "d": "285,-528v110,-2,198,60,195,164v-4,149,-136,182,-231,244r-26,13v76,-9,189,-4,276,-5r-29,112r-417,0r0,-122v22,-10,41,-18,54,-26v64,-37,218,-98,222,-195v2,-44,-34,-69,-80,-67v-65,2,-87,27,-136,64r-80,-83v67,-58,138,-98,252,-99", "w": 541 }, "3": { "d": "301,-61v3,-98,-95,-87,-188,-87r0,-112v21,3,44,4,69,4v74,0,111,-26,111,-79v-1,-50,-31,-76,-85,-75v-66,0,-110,25,-148,56r-70,-85v56,-42,140,-84,236,-84v142,0,263,112,199,249v-21,44,-45,54,-86,72v67,22,119,72,119,152v0,181,-224,257,-435,229r-32,-93v142,27,306,-21,310,-147", "w": 509 }, "4": { "d": "320,-3v-93,7,-199,1,-297,3r0,-91r193,-427r138,0r-144,324v-13,24,-30,65,-45,81v49,-4,107,-2,158,-1v-4,-68,12,-168,17,-242r105,-24r-3,266r74,-1r0,115r-76,-2v11,49,2,119,5,177r-127,16", "w": 548 }, "5": { "d": "306,-54v0,-127,-137,-121,-255,-78r32,-380r341,0r-20,114r-196,0r-14,139v142,-27,258,58,257,189v0,180,-190,285,-391,247r-29,-99v129,41,275,-7,275,-132", "w": 494 }, "6": { "d": "283,14v-148,0,-254,-128,-251,-282v5,-258,201,-382,395,-451r29,96v-125,43,-219,102,-260,231v131,-93,321,22,321,178v0,127,-106,228,-234,228xm376,-212v0,-60,-33,-105,-91,-105v-31,0,-66,11,-104,33v-12,88,6,198,96,195v64,-2,99,-54,99,-123", "w": 561 }, "7": { "d": "298,-395v-88,10,-196,1,-292,4r30,-121r417,0r-22,117v-96,148,-211,342,-239,558r-147,37v11,-46,21,-84,30,-114v46,-157,135,-367,223,-481", "w": 459 }, "8": { "d": "394,-355v73,26,155,74,155,172v0,204,-298,257,-454,149v-39,-27,-61,-71,-61,-138v0,-82,53,-148,118,-169v-53,-21,-98,-71,-99,-151v1,-119,110,-185,240,-185v123,0,230,62,230,174v0,78,-60,131,-129,148xm293,-409v48,-25,81,-44,81,-98v0,-48,-30,-72,-91,-72v-70,0,-117,62,-78,117v15,21,58,40,88,53xm296,-79v56,0,105,-33,102,-86v-4,-82,-76,-92,-151,-123v-43,25,-64,60,-64,106v-1,65,46,103,113,103", "w": 600 }, "9": { "d": "273,-529v155,0,241,112,239,273v-4,262,-190,383,-376,461r-73,-82v95,-22,237,-129,264,-214v-149,68,-296,-55,-296,-204v0,-135,105,-234,242,-234xm176,-299v0,67,37,119,101,119v29,0,56,-12,80,-37v26,-87,5,-211,-87,-209v-63,1,-94,58,-94,127", "w": 564 }, ":": { "d": "152,-455v47,0,87,40,87,87v0,47,-39,86,-87,86v-45,0,-85,-40,-85,-85v0,-46,39,-88,85,-88xm152,-157v47,0,86,41,86,89v0,47,-39,84,-87,84v-47,0,-86,-37,-86,-84v0,-48,39,-89,87,-89", "w": 304 }, ";": { "d": "149,-456v47,0,88,39,88,87v0,46,-39,86,-85,86v-45,0,-87,-40,-87,-85v0,-47,38,-88,84,-88xm150,-156v109,6,126,162,60,235v-29,32,-61,56,-102,66r-52,-56v36,-9,83,-33,66,-73v-3,-4,-14,-10,-32,-22v-59,-40,-18,-155,60,-150", "w": 312 }, "<": { "d": "1206,-297v0,46,-37,85,-84,85v-44,0,-84,-40,-84,-85v0,-45,39,-84,84,-84v47,0,84,37,84,84xm958,-297v0,46,-37,85,-84,85v-45,0,-85,-40,-85,-85v0,-44,40,-84,85,-84v45,0,84,39,84,84xm478,-667v0,46,-37,85,-84,85v-44,0,-84,-40,-84,-85v0,-45,39,-84,84,-84v45,0,84,39,84,84xm709,-297v0,46,-37,85,-84,85v-44,0,-84,-40,-84,-85v0,-45,39,-84,84,-84v45,0,84,39,84,84xm345,-482v0,46,-37,85,-84,85v-46,0,-84,-39,-84,-85v0,-45,39,-84,84,-84v45,0,84,39,84,84xm461,-297v0,45,-40,85,-85,85v-44,0,-84,-40,-84,-85v0,-45,39,-84,84,-84v46,0,85,37,85,84xm212,-297v0,46,-37,85,-84,85v-46,0,-84,-39,-84,-85v0,-45,39,-84,84,-84v45,0,84,39,84,84xm345,-112v0,46,-37,85,-84,85v-46,0,-84,-39,-84,-85v0,-45,39,-84,84,-84v45,0,84,39,84,84xm478,73v0,46,-37,85,-84,85v-44,0,-84,-40,-84,-85v0,-45,39,-84,84,-84v45,0,84,39,84,84", "w": 1258 }, "=": { "d": "607,-462r0,126r-548,0r0,-126r548,0xm607,-270r0,126r-548,0r0,-126r548,0" }, ">": { "d": "44,-297v0,-45,39,-84,84,-84v45,0,84,39,84,84v0,46,-37,85,-84,85v-46,0,-84,-39,-84,-85xm292,-297v0,-45,39,-84,84,-84v46,0,85,37,85,84v0,45,-40,85,-85,85v-44,0,-84,-40,-84,-85xm772,-667v0,-45,39,-84,84,-84v45,0,84,39,84,84v0,46,-37,85,-84,85v-44,0,-84,-40,-84,-85xm541,-297v0,-45,39,-84,84,-84v45,0,84,39,84,84v0,46,-37,85,-84,85v-44,0,-84,-40,-84,-85xm905,-482v0,-45,39,-84,84,-84v47,0,84,37,84,84v0,46,-37,85,-84,85v-44,0,-84,-40,-84,-85xm789,-297v0,-44,40,-84,85,-84v45,0,84,39,84,84v0,46,-37,85,-84,85v-45,0,-85,-40,-85,-85xm1038,-297v0,-45,39,-84,84,-84v47,0,84,37,84,84v0,46,-37,85,-84,85v-44,0,-84,-40,-84,-85xm905,-112v0,-45,39,-84,84,-84v47,0,84,37,84,84v0,46,-37,85,-84,85v-44,0,-84,-40,-84,-85xm772,73v0,-45,39,-84,84,-84v45,0,84,39,84,84v0,46,-37,85,-84,85v-44,0,-84,-40,-84,-85", "w": 1258 }, "?": { "d": "211,13v-44,0,-81,-39,-81,-83v0,-46,37,-83,83,-83v45,0,82,38,82,83v0,46,-38,83,-84,83xm233,-705v102,-2,190,65,190,167v0,166,-195,134,-167,317r-115,0v-21,-80,-4,-159,56,-199v44,-30,71,-50,79,-60v38,-45,-2,-115,-68,-109v-59,5,-68,18,-108,46r-61,-86v40,-44,117,-75,194,-76", "w": 486 }, "@": { "d": "393,-546v56,1,89,18,108,57r10,-45r94,0r-43,230v-4,29,-10,64,24,61v60,-5,86,-70,86,-149v0,-156,-106,-244,-261,-244v-163,0,-277,121,-277,283v0,170,124,283,294,281v78,0,143,-25,189,-61r110,0v-62,88,-170,149,-307,151v-210,4,-388,-160,-388,-371v0,-206,176,-373,382,-373v186,0,354,134,354,329v0,93,-25,156,-74,191v-49,35,-98,53,-148,53v-44,0,-77,-19,-79,-54v-34,31,-67,54,-130,54v-88,1,-144,-76,-144,-168v0,-118,81,-228,200,-225xm401,-456v-63,-1,-101,58,-100,124v1,50,17,89,69,89v74,0,104,-53,105,-121v0,-53,-23,-92,-74,-92", "w": 800 }, "A": { "d": "369,-697r219,697r-150,0r-49,-165r-204,0r-49,165r-146,0r228,-697r151,0xm355,-281r-38,-140r-28,-123r-52,204r-18,59r136,0", "w": 580 }, "B": { "d": "574,-194v0,105,-71,191,-182,192r-308,2r0,-695v109,3,247,-13,336,11v57,15,127,74,127,163v0,76,-43,116,-75,137v-9,5,-21,10,-36,15v81,23,137,77,138,175xm401,-497v0,-55,-35,-79,-98,-79r-81,0r0,159r83,0v69,4,96,-25,96,-80xm416,-211v0,-61,-37,-91,-105,-91r-87,0r0,188r91,0v70,5,101,-36,101,-97", "w": 612 }, "C": { "d": "348,12v-193,2,-311,-148,-311,-345v0,-165,62,-271,158,-334v94,-62,257,-52,331,12r-63,95v-80,-63,-194,-44,-239,36v-17,30,-29,83,-29,164v0,157,23,264,163,264v52,0,85,-18,119,-45r64,88v-53,43,-117,65,-193,65", "w": 548 }, "D": { "d": "445,-32v-53,37,-116,32,-192,32r-169,0r0,-695r261,4v150,22,247,138,247,346v0,166,-68,257,-147,313xm435,-332v0,-136,-15,-250,-145,-253r-64,0r0,471r75,0v89,0,134,-73,134,-218", "w": 636 }, "E": { "d": "480,-695r-18,114r-238,0r0,161r199,0r0,114r-197,0r0,186r263,0r0,120r-405,0r0,-695r396,0", "w": 536 }, "F": { "d": "461,-695r-16,113r-221,0r0,159r177,0r0,114r-177,0r0,309r-140,0r0,-695r377,0", "w": 478 }, "G": { "d": "195,-334v-2,161,38,237,161,237v31,0,57,-6,79,-17r0,-158r-106,0r-18,-114r269,0r0,332v-120,81,-366,89,-446,-16v-70,-92,-96,-135,-96,-271v0,-146,38,-242,110,-292v143,-100,301,-95,425,7r-74,87v-44,-36,-92,-54,-145,-54v-137,0,-158,114,-159,259", "w": 644 }, "H": { "d": "223,-695r0,270r200,0r0,-270r142,0r0,695r-142,0r0,-310r-200,0r0,310r-139,0r0,-695r139,0", "w": 649 }, "I": { "d": "230,-695r0,695r-146,0r0,-695r146,0", "w": 314 }, "J": { "d": "223,-695r-1,647v-6,58,-23,110,-70,149v-32,27,-64,49,-101,63r-65,-72v67,-43,95,-91,95,-212r0,-575r142,0", "w": 306 }, "K": { "d": "227,-695r0,317r198,-317r172,0r-222,322r247,373r-184,0r-211,-363r0,363r-143,0r0,-695r143,0", "w": 615 }, "L": { "d": "227,-695r0,579r249,0r-25,116r-367,0r0,-695r143,0", "w": 483 }, "M": { "d": "231,-488r-5,125r-24,363r-139,0r65,-695r179,0r105,403v2,10,5,28,10,55v30,-156,81,-308,119,-458r178,0r62,695r-137,0r-26,-371v1,-21,-4,-100,-5,-116v-7,35,-16,71,-26,107r-110,380r-119,0r-118,-441v-6,-26,-8,-42,-9,-47", "w": 845 }, "N": { "d": "208,-494v4,40,7,152,7,197r4,297r-135,0r0,-695r155,0r133,278v31,65,57,128,76,197r-11,-191r-3,-284r133,0r0,695r-146,0r-185,-418v-14,-35,-23,-60,-28,-76", "w": 651 }, "O": { "d": "339,-704v195,-1,301,148,299,353v-2,212,-92,362,-294,362v-133,0,-175,-34,-246,-123v-41,-51,-60,-130,-60,-233v2,-206,101,-358,301,-359xm337,-596v-125,0,-141,112,-143,251v-3,184,24,249,145,249v119,0,138,-105,138,-251v0,-118,-7,-171,-59,-221v-20,-19,-48,-28,-81,-28", "w": 668 }, "P": { "d": "560,-481v-5,152,-96,233,-259,225r-77,0r0,256r-140,0r0,-695r183,0v109,1,133,1,199,37v53,29,97,96,94,177xm407,-478v3,-61,-34,-104,-94,-104r-89,0r0,212r73,0v84,4,107,-32,110,-108", "w": 577 }, "Q": { "d": "500,-32v59,29,115,84,210,59r-37,91v-140,48,-212,-81,-331,-107v-202,4,-306,-156,-305,-356v1,-206,100,-358,301,-359v195,0,299,148,299,353v0,145,-51,263,-137,319xm336,-596v-125,0,-141,112,-143,251v-3,184,24,249,145,249v119,0,138,-105,138,-251v0,-118,-7,-171,-59,-221v-20,-19,-48,-28,-81,-28" }, "R": { "d": "547,-491v0,96,-66,193,-155,192v75,68,134,205,196,299r-165,0r-141,-244v-21,-31,-30,-41,-61,-46r0,290r-137,0r0,-695r259,0v121,-2,204,83,204,204xm400,-488v0,-105,-84,-93,-179,-95r0,188v98,2,179,4,179,-93", "w": 607 }, "S": { "d": "49,-501v0,-176,197,-254,374,-197v40,13,76,29,107,52r-66,100v-55,-32,-91,-48,-162,-53v-71,-5,-128,72,-80,123v25,27,99,37,144,50v117,33,176,101,176,207v0,192,-212,273,-409,218v-41,-11,-79,-26,-115,-47r52,-109v66,33,106,56,191,56v81,0,122,-32,122,-95v0,-103,-185,-98,-253,-146v-43,-30,-81,-83,-81,-159", "w": 584 }, "T": { "d": "517,-695r-23,116r-166,0r0,579r-142,0r0,-579r-170,0r0,-116r501,0", "w": 518 }, "U": { "d": "330,-107v85,-2,108,-47,108,-143r0,-445r142,0r0,521v-6,118,-106,187,-247,187v-109,0,-177,-19,-201,-59v-42,-70,-52,-77,-52,-165r0,-484r143,0r0,457v3,84,15,133,107,131", "w": 660 }, "V": { "d": "144,-695r132,422v6,21,11,42,15,61v41,-168,107,-323,158,-483r147,0r-242,700r-127,0r-236,-700r153,0", "w": 590 }, "W": { "d": "159,-695r60,274v20,89,26,144,37,229v3,-29,8,-62,14,-100v6,-38,13,-79,22,-122r62,-281r153,0r80,401v5,34,10,65,14,94v19,-164,63,-341,95,-495r147,0r-168,701r-153,0r-62,-283v-13,-53,-27,-143,-33,-202r-11,83r-80,402r-159,0r-166,-701r148,0", "w": 856 }, "X": { "d": "196,-695r94,187r95,-187r167,0r-181,314r216,381r-169,0r-125,-245r-124,245r-174,0r218,-372r-188,-323r171,0", "w": 579 }, "Y": { "d": "152,-695r110,237v6,16,11,30,14,42r37,-87r90,-192r165,0r-222,409r0,286r-146,0r0,-286r-216,-409r168,0", "w": 552 }, "Z": { "d": "333,-584v-87,11,-190,3,-285,5r31,-116r416,0r0,101r-277,465v-5,7,-11,13,-17,19v93,-9,203,-2,303,-4r-36,114r-434,0r0,-98r256,-423v8,-15,35,-50,43,-63", "w": 525 }, "[": { "d": "137,-642r0,708r90,0r0,90r-210,0r0,-888r210,0r0,90r-90,0", "w": 284 }, "\\": { "d": "-9,-726r114,-35r299,779r-113,35", "w": 407 }, "]": { "d": "146,66r0,-708r-90,0r0,-90r210,0r0,888r-210,0r0,-90r90,0", "w": 296 }, "^": { "d": "407,-708r180,365r-142,0r-111,-238r-112,238r-141,0r180,-365r146,0" }, "_": { "d": "0,75r500,0r0,50r-500,0r0,-50", "w": 500 }, "`": { "d": "254,-557r-224,-100r58,-104r207,130", "w": 338 }, "a": { "d": "48,-451v52,-33,145,-72,223,-72v89,0,138,19,152,53v37,89,16,190,19,309v2,63,10,75,48,105r-71,82v-31,-12,-58,-34,-72,-62v-28,29,-59,55,-134,55v-111,0,-173,-53,-176,-160v-3,-126,106,-184,276,-175v0,-60,1,-100,-60,-97v-58,3,-104,29,-148,58xm180,-146v-2,76,90,87,129,32r2,-110v-82,1,-129,5,-131,78", "w": 516 }, "b": { "d": "59,0v14,-34,12,-52,13,-109r0,-474v0,-59,-3,-101,-9,-126r137,-32v7,79,8,175,2,257v25,-27,62,-41,109,-41v134,1,203,115,203,260v0,107,-25,178,-72,217v-82,69,-178,80,-249,11v-5,21,-4,21,-14,37r-120,0xm283,-414v-38,0,-56,18,-76,41r0,236v21,18,39,31,75,33v59,4,70,-45,77,-84v2,-16,3,-58,3,-90v0,-74,-13,-136,-79,-136", "w": 547 }, "c": { "d": "36,-252v1,-177,103,-301,284,-269v46,8,62,24,97,53r-65,88v-29,-27,-56,-40,-81,-40v-77,0,-87,75,-87,172v0,100,15,151,86,158v31,3,71,-21,100,-49r61,81v-40,38,-81,71,-172,70v-148,-1,-224,-108,-223,-264", "w": 440 }, "d": { "d": "35,-247v0,-148,81,-270,219,-270v37,0,67,10,91,29v-8,-65,-3,-175,-4,-252r133,21r0,532v0,88,2,137,19,187r-120,0v-3,-7,-6,-17,-8,-30v-33,29,-72,43,-118,43v-138,0,-212,-113,-212,-260xm277,-100v26,0,54,-17,66,-33r0,-244v-25,-22,-50,-33,-73,-33v-75,0,-86,71,-86,164v0,96,9,146,93,146", "w": 552 }, "e": { "d": "180,-214v-2,78,34,128,108,128v45,0,89,-17,130,-51r52,80v-58,47,-122,71,-193,71v-149,1,-245,-111,-242,-265v2,-109,20,-153,78,-219v32,-36,81,-53,147,-53v162,0,225,115,216,309r-296,0xm337,-312v1,-65,-15,-113,-75,-113v-56,0,-81,48,-80,111", "w": 510 }, "f": { "d": "318,-626v-38,-26,-111,-26,-111,41r0,73r130,0r-34,92r-95,0r0,420r-131,0r0,-420r-46,0r0,-92r49,0v-25,-132,31,-233,160,-229v53,2,83,11,121,32", "w": 310 }, "g": { "d": "259,-521v55,0,109,24,155,24v38,0,73,-15,106,-44r56,85v-36,33,-74,43,-129,35v20,24,30,52,30,84v-1,99,-98,162,-209,151v-24,12,-47,21,-53,42v0,8,7,12,22,12v54,1,128,-1,165,11v51,18,110,64,106,145v-6,127,-112,171,-243,172v-123,1,-229,-35,-236,-146v-2,-26,4,-35,12,-52r124,0v-21,59,11,96,90,96v61,0,114,-13,117,-69v3,-68,-82,-60,-151,-62v-96,-3,-162,1,-162,-83v0,-58,33,-69,94,-86v-73,-19,-110,-66,-110,-142v0,-112,96,-173,216,-173xm178,-347v0,49,30,73,79,73v55,0,82,-24,82,-73v0,-51,-27,-76,-81,-76v-53,0,-80,25,-80,76", "w": 552 }, "h": { "d": "311,-414v-41,0,-80,24,-106,47r0,367r-136,0r0,-592v0,-55,-3,-94,-10,-117r137,-32v12,61,10,190,7,270v55,-67,242,-80,275,11v14,37,16,53,16,102r0,358r-131,0r0,-344v-1,-48,-8,-70,-52,-70", "w": 558 }, "i": { "d": "204,-524r0,524r-134,0r0,-503xm139,-736v44,0,81,39,81,83v0,46,-37,83,-83,83v-45,0,-82,-38,-82,-83v0,-46,38,-83,84,-83", "w": 274 }, "j": { "d": "9,146v43,-40,65,-61,65,-156r0,-481r133,-32r0,509v-1,139,-38,189,-142,234xm142,-737v43,0,83,38,83,82v0,45,-39,84,-84,84v-44,0,-82,-38,-82,-82v0,-44,38,-84,83,-84", "w": 279 }, "k": { "d": "500,-512r-163,214r201,298r-158,0r-172,-290r131,-222r161,0xm71,-577v0,-66,0,-74,-9,-133r135,-33v18,227,3,500,8,743r-134,0r0,-577", "w": 514 }, "l": { "d": "192,-740v16,182,8,403,8,600v0,42,11,67,50,58r23,80v-24,9,-51,14,-80,14v-104,0,-131,-61,-131,-185r0,-382v0,-60,-2,-111,-7,-154", "w": 303 }, "m": { "d": "71,-357v-1,-65,0,-94,-19,-131r121,-33v7,12,13,29,18,52v60,-62,168,-72,229,-10r20,25v40,-40,76,-67,145,-67v104,0,139,47,139,157r0,364r-130,0r0,-338v-3,-54,3,-73,-42,-73v-27,0,-57,14,-89,43r0,368r-127,0r0,-333v-2,-54,0,-79,-46,-79v-29,0,-59,13,-88,39r0,373r-131,0r0,-357", "w": 792 }, "n": { "d": "297,-408v-39,0,-66,23,-93,46r0,362r-134,0r0,-371v0,-46,-6,-86,-18,-120r119,-34v13,22,19,43,19,64v41,-26,77,-62,151,-60v88,2,133,51,133,147r0,374r-132,0r0,-333v-2,-50,-2,-75,-45,-75", "w": 542 }, "o": { "d": "262,-522v144,0,233,110,233,264v0,131,-51,209,-135,251v-26,13,-59,18,-98,18v-144,1,-230,-114,-230,-265v0,-150,86,-268,230,-268xm264,-423v-73,0,-83,80,-83,166v0,110,6,159,85,171v75,-7,83,-76,83,-173v0,-106,-10,-164,-85,-164", "w": 527 }, "p": { "d": "71,-372v0,-69,1,-72,-8,-129r119,-21v7,30,9,22,9,48v26,-32,68,-48,126,-48v132,0,196,105,196,252v0,143,-45,223,-131,266v-54,27,-136,18,-184,-12r2,202r-129,34r0,-592xm201,-125v19,16,42,30,74,30v82,0,92,-64,92,-162v0,-87,0,-156,-77,-156v-35,0,-64,13,-89,39r0,249", "w": 544 }, "q": { "d": "152,-504v57,-35,187,-24,211,31v0,-13,3,-26,10,-40r111,0v-9,38,-12,101,-12,151r0,550r-127,34r0,-194v0,-23,1,-41,3,-52v-27,24,-61,36,-102,36v-146,0,-216,-104,-215,-260v1,-135,39,-205,121,-256xm345,-378v-18,-19,-44,-35,-77,-35v-74,0,-91,65,-90,148v1,99,4,167,90,167v33,0,61,-19,77,-39r0,-241", "w": 550 }, "r": { "d": "69,0v-6,-162,17,-362,-19,-492r120,-32v12,22,21,41,21,73v32,-46,95,-95,170,-62r-37,118v-48,-23,-87,-5,-121,33r0,362r-134,0", "w": 352 }, "s": { "d": "46,-309v-46,-159,109,-250,274,-207v27,6,60,19,99,38r-44,90v-49,-25,-91,-37,-126,-37v-51,0,-88,50,-51,81v35,30,138,35,176,61v31,22,66,59,66,121v0,113,-98,178,-219,178v-63,0,-132,-20,-207,-59r48,-98v41,25,110,58,170,58v36,1,68,-24,68,-58v0,-72,-136,-59,-192,-93v-34,-21,-51,-36,-62,-75", "w": 472 }, "t": { "d": "318,-11v-120,51,-256,21,-256,-131r0,-278r-51,0r0,-92r51,0r0,-60v0,0,2,-38,5,-61r136,-34v-5,50,-8,102,-8,155r120,0r-34,92r-86,0r0,257v2,59,4,80,58,82v9,0,25,-3,48,-10", "w": 334 }, "u": { "d": "460,-133v0,37,13,72,31,93r-95,54v-18,-13,-31,-29,-40,-50v-64,76,-250,58,-282,-23v-14,-35,-15,-65,-15,-113r0,-328r132,-25r0,329v4,58,-4,108,58,108v33,1,74,-25,83,-49r0,-360r128,-27r0,391", "w": 532 }, "v": { "d": "125,-521r92,292v7,25,12,45,15,62v20,-122,67,-233,100,-345r140,0r-187,512r-111,0r-186,-504", "w": 468 }, "w": { "d": "142,-518r71,356v15,-119,55,-239,85,-350r126,0r65,277v5,27,10,51,14,73r28,-167r39,-183r138,0r-146,512r-123,0r-62,-240r-21,-111v-22,123,-55,234,-82,351r-125,0r-140,-503", "w": 712 }, "x": { "d": "162,-527r69,125r16,34r45,-100r24,-44r158,0r-152,236r184,276r-170,0r-54,-94r-40,-76v-22,59,-63,116,-94,170r-172,0r189,-273r-142,-215", "w": 501 }, "y": { "d": "131,-520r89,299r27,106v25,-145,74,-266,113,-397r141,0r-186,520v-44,125,-79,194,-222,216r-46,-88v85,-17,121,-60,150,-136r-34,0r-169,-504", "w": 497 }, "z": { "d": "424,-512r0,92r-226,327r235,0r-32,93r-377,0r0,-83r241,-335r-221,0r0,-94r380,0", "w": 456 }, "{": { "d": "254,-22v-6,64,48,68,114,64r0,114r-105,0v-82,-1,-129,-55,-129,-146r0,-172v-2,-48,-52,-70,-108,-69r0,-114v58,1,108,-19,108,-69r0,-173v-1,-92,44,-145,129,-145r105,0r0,114r-49,0v-49,-1,-65,22,-65,64r0,161v1,78,-35,96,-100,104v64,5,100,28,100,105r0,162", "w": 390 }, "|": { "d": "174,-756r0,774r-126,0r0,-774r126,0", "w": 222 }, "}": { "d": "143,-554v6,-64,-48,-68,-114,-64r0,-114r108,0v80,1,126,57,126,146r0,172v-3,55,59,68,108,69r0,114v-59,-1,-108,19,-108,69r0,173v1,92,-44,145,-129,145r-105,0r0,-114r49,0v49,1,65,-22,65,-64r0,-161v-1,-78,35,-96,100,-104v-64,-5,-100,-28,-100,-105r0,-162", "w": 392 }, "~": { "d": "564,-292v-26,60,-89,103,-174,78v-49,-14,-109,-52,-164,-60v-48,4,-58,34,-88,68r-36,-108v26,-60,89,-103,174,-78v49,14,109,53,164,60v48,-4,58,-34,88,-68" }, "\u00a0": { "w": 225}} });
